{
"flappy_weights" : [-0 ,-0 ,-0 ,-0 ,-0 ,-0 ,-0 ,-0 ,-0 ,-0 ,-0 ,-0 ,-0 ,-0 ,-0 ,-0 ,-0 ,-0 ,-0 ,-0 ,-0 ,-0 ,-0 ,-0 ,-0 ,-0 ,-0 ,-0 ,-0 ,-0 ,-0 ,-0 ,-0 ,-0 ,-0 ,-0 ,-0 ,-0 ,-0 ,-0 ,-0 ,-0 ,-0 ,-0 ,-0 ,-0 ,-0 ,-0 ,-0 ,-0 ,-0 ,-0 ,-0 ,-0 ,-0 ,-0 ,-0 ,-0 ,-0 ,-0 ,-0 ,-0 ,-0 ,-0 ,-0 ,-0 ,-0 ,-0 ,-0 ,-0 ,-0 ,-0 ,-0 ,-0 ,-0 ,-0 ,-0 ,-0 ,-0 ,-0 ,-0 ,-0 ,-0 ,-0 ,-0 ,-0 ,-0 ,-0 ,-0 ,-0 ,-0 ,-0 ,-0 ,-0 ,-0 ,-0 ,-0 ,-0 ,-0 ,-0.0186278 ,-0.0475761 ,-0.0324062 ,-0.0529688 ,-0.0133791 ,-0.0497221 ,-0.0478664 ,-0.0270135 ,0.00887516 ,0.017574 ,-0 ,-0 ,-0 ,-0 ,-0 ,-0 ,-0 ,-0.00332828 ,-0.00292557 ,-0 ,-0.047566 ,-0 ,-0.00332828 ,-0.00271944 ,-0.00872354 ,-0.047566 ,-0.00324293 ,0.00185425 ,0.00888775 ,-0.00271944 ,-0.00872354 ,0.00888775 ,0.028076 ,0.0419678 ,-0 ,-0 ,-0 ,-0 ,-0 ,-0 ,-0 ,-0 ,-0 ,-0 ,-0 ,-0 ,-0 ,-0 ,-0 ,-0 ,-0 ,-0 ,-0 ,-0 ,-0 ,-0 ,-0 ,-0 ,-0 ,-0 ,-0 ,-0 ,-0 ,-0 ,-0 ,-0 ,-0 ,-0 ,-0 ,-0 ,-0 ,-0 ,-0 ,-0 ,-0 ,-0 ,-0 ,-0 ,-0 ,-0 ,-0 ,-0 ,-0 ,-0 ,-0 ,-0 ,-0 ,-0.0490102 ,-0.048024 ,-0 ,-0.0566314 ,-0 ,-0.0490102 ,-0 ,-0 ,-0.00986763 ,-0.0100561 ,0.0200942 ,0.0152841 ,-0.0150958 ,-0.00986763 ,-0.0150958 ,0.0200942 ,0.0365398 ,0.00314609 ,-0.0236883 ,0.00541307 ,-0.0597663 ,-0.038755 ,-0.0610605 ,-0.0184843 ,-0.0637386 ,0.0135797 ,-0 ,-0 ,-0 ,-0.0566314 ,-0 ,-0 ,-0 ,-0.0186278 ,-0.0478664 ,-0.0497221 ,-0.0133791 ,-0.0529688 ,-0.0324062 ,-0.0475761 ,-0.0270135 ,-0.0143179 ,-0.0566493 ,0.0176625 ,-0 ,-0 ,-0 ,-0 ,0.0086862 ,0.00314609 ,-0.00416273 ,0.00094049 ,0.0426332 ,0.0365398 ,0.0086862 ,0.0426332 ,-0.0143179 ,-0.0566493 ,-0.0184843 ,-0.0637386 ,0.0176625 ,0.0135797 ,-0 ,-0 ,-0 ,-0 ,-0.26889 ,-0.27216 ,-0.273354 ,-0.269605 ,-0.261822 ,-0.263507 ,-0.263985 ,-0.267077 ,-0.24711 ,-0.244656 ,-0.253661 ,-0.263983 ,-0.269604 ,-0.268888 ,-0.26182 ,-0 ,-0 ,-0 ,-0 ,-0 ,-0 ,-0 ,-0 ,-0 ,-0 ,-0 ,-0 ,-0 ,-0 ,-0 ,-0 ,-0 ,-0 ,-0 ,-0 ,-0 ,-0 ,-0 ,-0 ,-0 ,-0 ,-0 ,-0 ,-0 ,-0 ,-0 ,-0 ,-0 ,-0 ,-0 ,-0 ,-0.038755 ,-0.0610605 ,-0.0236883 ,0.00541307 ,-0.0597663 ,-0 ,-0 ,-0 ,-0 ,-0 ,-0 ,-0 ,-0 ,-0 ,-0 ,-0 ,-0 ,-0 ,-0 ,-0 ,-0 ,-0 ,-0 ,-0 ,-0 ,-0 ,-0 ,-0 ,-0 ,-0 ,-0 ,-0 ,-0 ,-0 ,-0 ,-0 ,-0 ,-0 ,-0 ,-0 ,-0 ,-0 ,-0 ,-0 ,-0 ,-0 ,-0 ,-0 ,-0 ,-0 ,-0 ,-0 ,-0 ,-0 ,-0 ,-0 ,-0 ,-0 ,-0 ,-0 ,-0 ,-0.263985 ,-0.267077 ,-0.273354 ,-0.269605 ,-0.24711 ,-0.247739 ,-0.26889 ,-0.27216 ,-0.261822 ,-0.256234 ,-0.25789 ,-0.268888 ,-0.269604 ,-0.263983 ,-0.247107 ,-0.234057 ,-0.237379 ,-0.185996 ,-0.179262 ,-0.231052 ,-0.194024 ,-0.228115 ,-0.175612 ,-0.253661 ,-0.25688 ,-0.0739761 ,-0.0651648 ,-0.0820172 ,-0.0968924 ,-0.110805 ,-0.2147 ,-0.22006 ,-0.168808 ,-0.160562 ,-0.244656 ,-0.15708 ,-0.212566 ,-0.214695 ,-0.160551 ,-0.0640389 ,-0.0619222 ,-0.0651107 ,-0.0640706 ,-0 ,-0.228106 ,-0.220052 ,-0.168789 ,-0.175592 ,-0.253657 ,-0.244651 ,-0.179241 ,-0.231043 ,-0.23405 ,-0.185979 ,-0.257886 ,-0.256876 ,-0.0968442 ,-0 ,-0 ,-0.11077 ,-0.0819579 ,-0.073915 ,-0 ,-0.241973 ,-0.237373 ,-0.194012 ,-0.199363 ,-0.26182 ,-0.25623 ,-0.200919 ,-0.243376 ,-0.241976 ,-0.19937 ,-0.263507 ,-0.122638 ,-0.0200644 ,-0.125769 ,-0.12262 ,-0.0200221 ,-0.228115 ,-0.22006 ,-0.175612 ,-0.179262 ,-0.231052 ,-0.168808 ,-0.234057 ,-0.185996 ,-0.25789 ,-0.25688 ,-0.0968924 ,-0 ,-0 ,-0.110805 ,-0.0820172 ,-0.0739761 ,-0.0651648 ,-0.241976 ,-0.237379 ,-0.194024 ,-0.19937 ,-0.256234 ,-0.200919 ,-0.243376 ,-0.241973 ,-0.199363 ,-0.12262 ,-0.125769 ,-0.0200221 ,-0.11077 ,-0.122638 ,-0.0200644 ,-0.0300804 ,-0.23405 ,-0.237373 ,-0.194012 ,-0.185979 ,-0.257886 ,-0.25623 ,-0.179241 ,-0.231043 ,-0.228106 ,-0.175592 ,-0.253657 ,-0.256876 ,-0.073915 ,-0.0651107 ,-0.0819579 ,-0.0968442 ,-0.214695 ,-0.220052 ,-0.168789 ,-0.160551 ,-0.247107 ,-0.244651 ,-0.15708 ,-0.212566 ,-0.2147 ,-0.160562 ,-0.247739 ,-0.0640706 ,-0.0619222 ,-0.0640389 ,0.175388 ,0.213178 ,0.252866 ,0.204149 ,0.130123 ,0.150641 ,0.214194 ,0.208917 ,0.249502 ,0.253675 ,0.151732 ,0.145827 ,0.201447 ,0.197611 ,0.131195 ,0.135284 ,0.200725 ,0.168543 ,0.197623 ,0.122376 ,0.131405 ,0.160263 ,0.112443 ,0.165768 ,0.134573 ,0.11846 ,0.165768 ,0.200725 ,0.252866 ,0.204149 ,0.11846 ,0.134573 ,0.201447 ,0.197611 ,0.249502 ,0.253675 ,0.135284 ,0.131195 ,0.214194 ,0.208917 ,0.145827 ,0.151732 ,0.213178 ,0.160263 ,0.197623 ,0.112443 ,0.131405 ,0.168543 ,0.122376 ,0.175388 ,0.150641 ,0.130123 ,-0 ,-0 ,-0 ,-0 ,-0 ,-0 ,-0 ,-0 ,0.0226258 ,-0 ,-0 ,0.017574 ,0.00887516 ,-0.0300804 ,0.0766475 ,0.0724014 ,0.0419678 ,0.028076 ,0.0960006 ,0.0897269 ,-0 ,0.0152841 ,-0 ,0.0226258 ,0.0766475 ,0.0724014 ,0.0757244 ,0.0760547 ,0.0806964 ,0.0730661 ,0.0693243 ,0.0890912 ,0.0949602 ,0.139031 ,0.0960006 ,0.0897269 ,0.0890912 ,0.0949602 ,0.0693243 ,0.0730661 ,0.0806964 ,0.0757244 ,0.0760547 ,0.139031 ,0.0813628 ,0.0813628], 
"vertex_depending_on_joint" : [ [0, 1, 2, 3, 4, 5, 6, 7, 8, 9, 10, 11, 12, 13, 14, 15, 16, 17, 18, 19, 20, 21, 22, 23, 24, 25, 26, 27, 28, 29, 30, 31, 32, 33, 34, 35, 36, 37, 38, 39, 40, 41, 42, 43, 44, 45, 46, 47, 48, 49, 50, 51, 52, 53, 54, 55, 56, 57, 58, 59, 60, 61, 62, 63, 64, 65, 66, 67, 68, 69, 70, 71, 72, 73, 74, 75, 76, 77, 78, 79, 80, 81, 82, 83, 84, 85, 86, 87, 88, 89, 90, 91, 92, 93, 94, 95, 96, 97, 98, 99, 100, 101, 102, 103, 104, 105, 106, 107, 108, 109, 110, 111, 112, 113, 114, 115, 116, 117, 118, 119, 120, 121, 122, 123, 124, 125, 126, 127, 128, 129, 130, 131, 132, 133, 134, 135, 136, 137, 138, 139, 140, 141, 142, 143, 144, 145, 146, 147, 148, 149, 150, 151, 152, 153, 154, 155, 156, 157, 158, 159, 160, 161, 162, 163, 164, 165, 166, 167, 168, 169, 170, 171, 172, 173, 174, 175, 176, 177, 178, 179, 180, 181, 182, 183, 184, 185, 186, 187, 188, 189, 190, 191, 192, 193, 194, 195, 196, 197, 198, 199, 200, 201, 202, 203, 204, 205, 206, 207, 208, 209, 210, 211, 212, 213, 214, 215, 216, 217, 218, 219, 220, 221, 222, 223, 224, 225, 226, 227, 228, 229, 230, 231, 232, 233, 234, 235, 236, 237, 238, 239, 240, 241, 242, 243, 244, 245, 246, 247, 248, 249, 250, 251, 252, 253, 254, 255, 256, 257, 258, 259, 260, 261, 262, 263, 264, 265, 266, 267, 268, 269, 270, 271, 272, 273, 274, 275, 276, 277, 278, 279, 280, 281, 282, 283, 284, 285, 286, 287, 288, 289, 290, 291, 292, 293, 294, 295, 296, 297, 298, 299, 300, 301, 302, 303, 304, 305, 306, 307, 308, 309, 310, 311, 312, 313, 314, 315, 316, 317, 318, 319, 320, 321, 322, 323, 324, 325, 326, 327, 328, 329, 330, 331, 332, 333, 334, 335, 336, 337, 338, 339, 340, 341, 342, 343, 344, 345, 346, 347, 348, 349, 350, 351, 352, 353, 354, 355, 356, 357, 358, 359, 360, 361, 362, 363, 364, 365, 366, 367, 368, 369, 370, 371, 372, 373, 374, 375, 376, 377, 378, 379, 380, 381, 382, 383, 384, 385, 386, 387, 388, 389, 390, 391, 392, 393, 394, 395, 396, 397, 398, 399, 400, 401, 402, 403, 404, 405, 406, 407, 408, 409, 410, 411, 412, 413, 414, 415, 416, 417, 418, 419, 420, 421, 422, 423, 424, 425, 426, 427, 428, 429, 430, 431, 432, 433, 434, 435, 436, 437, 438, 439, 440, 441, 442, 443, 444, 445, 446, 447, 448, 449, 450, 451, 452, 453, 454, 455, 456, 457, 458, 459, 460, 461, 462, 463, 464, 465, 466, 467, 468, 469, 470, 471, 472, 473, 474, 475, 476, 477, 478, 479, 480, 481, 482, 483, 484, 485, 486, 487, 488, 489, 490, 491, 492, 493, 494, 495, 496, 497, 498, 499, 500, 501, 502, 503, 504, 505, 506, 507, 508, 509, 510, 511, 512, 513, 514, 515, 516, 517, 518, 519, 520, 521, 522, 523, 524, 525, 526, 527, 528, 529, 530, 531, 532, 533, 534, 535, 536, 537, 538, 539, 540, 541, 542, 543, 544, 545, 546, 547, 548, 549, 550, 551, 552, 553, 554, 555, 556, 557, 558, 559, 560, 561, 562, 563, 564, 565, 566, 567, 568, 569, 570, 571, 572, 573, 574, 575, 576, 577, 578, 579, 580, 581, 582, 583, 584, 585, 586, 587, 588, 589, 590, 591, 592, 593, 594, 595, 596, 597, 598, 599, 600, 601, 602, 603]],
"vertex_weight_depending_on_joint" : [ [1, 1, 1, 1, 1, 1, 1, 1, 1, 1, 1, 1, 1, 1, 1, 1, 1, 1, 1, 1, 1, 1, 1, 1, 1, 1, 1, 1, 1, 1, 1, 1, 1, 1, 1, 1, 1, 1, 1, 1, 1, 1, 1, 1, 1, 1, 1, 1, 1, 1, 1, 1, 1, 1, 1, 1, 1, 1, 1, 1, 1, 1, 1, 1, 1, 1, 1, 1, 1, 1, 1, 1, 1, 1, 1, 1, 1, 1, 1, 1, 1, 1, 1, 1, 1, 1, 1, 1, 1, 1, 1, 1, 1, 1, 1, 1, 1, 1, 1, 1, 1, 1, 1, 1, 1, 1, 1, 1, 1, 1, 1, 1, 1, 1, 1, 1, 1, 1, 1, 1, 1, 1, 1, 1, 1, 1, 1, 1, 1, 1, 1, 1, 1, 1, 1, 1, 1, 1, 1, 1, 1, 1, 1, 1, 1, 1, 1, 1, 1, 1, 1, 1, 1, 1, 1, 1, 1, 1, 1, 1, 1, 1, 1, 1, 1, 1, 1, 1, 1, 1, 1, 1, 1, 1, 1, 1, 1, 1, 1, 1, 1, 1, 1, 1, 1, 1, 1, 1, 1, 1, 1, 1, 1, 1, 1, 1, 1, 1, 1, 1, 1, 1, 1, 1, 1, 1, 1, 1, 1, 1, 1, 1, 1, 1, 1, 1, 1, 1, 1, 1, 1, 1, 1, 1, 1, 1, 1, 1, 1, 1, 1, 1, 1, 1, 1, 1, 1, 1, 1, 1, 1, 1, 1, 1, 1, 1, 1, 1, 1, 1, 1, 1, 1, 1, 1, 1, 1, 1, 1, 1, 1, 1, 1, 1, 1, 1, 1, 1, 1, 1, 1, 1, 1, 1, 1, 1, 1, 1, 1, 1, 1, 1, 1, 1, 1, 1, 1, 1, 1, 1, 1, 1, 1, 1, 1, 1, 1, 1, 1, 1, 1, 1, 1, 1, 1, 1, 1, 1, 1, 1, 1, 1, 1, 1, 1, 1, 1, 1, 1, 1, 1, 1, 1, 1, 1, 1, 1, 1, 1, 1, 1, 1, 1, 1, 1, 1, 1, 1, 1, 1, 1, 1, 1, 1, 1, 1, 1, 1, 1, 1, 1, 1, 1, 1, 1, 1, 1, 1, 1, 1, 1, 1, 1, 1, 1, 1, 1, 1, 1, 1, 1, 1, 1, 1, 1, 1, 1, 1, 1, 1, 1, 1, 1, 1, 1, 1, 1, 1, 1, 1, 1, 1, 1, 1, 1, 1, 1, 1, 1, 1, 1, 1, 1, 1, 1, 1, 1, 1, 1, 1, 1, 1, 1, 1, 1, 1, 1, 1, 1, 1, 1, 1, 1, 1, 1, 1, 1, 1, 1, 1, 1, 1, 1, 1, 1, 1, 1, 1, 1, 1, 1, 1, 1, 1, 1, 1, 1, 1, 1, 1, 1, 1, 1, 1, 1, 1, 1, 1, 1, 1, 1, 1, 1, 1, 1, 1, 1, 1, 1, 1, 1, 1, 1, 1, 1, 1, 1, 1, 1, 1, 1, 1, 1, 1, 1, 1, 1, 1, 1, 1, 1, 1, 1, 1, 1, 1, 1, 1, 1, 1, 1, 1, 1, 1, 1, 1, 1, 1, 1, 1, 1, 1, 1, 1, 1, 1, 1, 1, 1, 1, 1, 1, 1, 1, 1, 1, 1, 1, 1, 1, 1, 1, 1, 1, 1, 1, 1, 1, 1, 1, 1, 1, 1, 1, 1, 1, 1, 1, 1, 1, 1, 1, 1, 1, 1, 1, 1, 1, 1, 1, 1, 1, 1, 1, 1, 1, 1, 1, 1, 1, 1, 1, 1, 1, 1, 1, 1, 1, 1, 1, 1, 1, 1, 1, 1, 1, 1, 1, 1, 1, 1, 1, 1, 1, 1, 1, 1, 1, 1, 1, 1, 1, 1, 1]]
}
